{
  "features_info":
    {
      "float_features":
        [
          {
            "borders":
              [
                0.55433601140975952,
                0.58431446552276611,
                0.59395051002502441,
                0.59876847267150879,
                0.60358649492263794,
                0.60840451717376709,
                0.61322247982025146,
                0.61804050207138062,
                0.62285852432250977,
                0.62821197509765625,
                0.63356548547744751,
                0.63945400714874268,
                0.64480751752853394,
                0.64962548017501831,
                0.65497851371765137,
                0.65979647636413574,
                0.66407901048660278,
                0.66836148500442505,
                0.67210900783538818,
                0.68174499273300171,
                0.689239501953125,
                0.69138097763061523,
                0.69352251291275024,
                0.69512850046157837,
                0.69887548685073853,
                0.70048153400421143,
                0.70208752155303955,
                0.70369350910186768,
                0.70476448535919189,
                0.70637047290802002,
                0.70797652006149292,
                0.70904695987701416,
                0.71065300703048706,
                0.71172350645065308,
                0.7144005298614502,
                0.71654152870178223,
                0.71975350379943848,
                0.72403651475906372,
                0.73474299907684326,
                0.73581349849700928,
                0.7368844747543335,
                0.73795497417449951,
                0.73956096172332764,
                0.74170249700546265,
                0.74330848455429077,
                0.74437904357910156,
                0.7454494833946228,
                0.7465205192565918,
                0.74759101867675781,
                0.74812650680541992,
                0.74919700622558594,
                0.74973249435424805,
                0.75026750564575195,
                0.75133848190307617,
                0.75240898132324219,
                0.7529444694519043,
                0.75401496887207031,
                0.75508546829223633,
                0.75562095642089844,
                0.75669151544570923,
                0.75776249170303345,
                0.75883299112319946,
                0.75990349054336548,
                0.76043903827667236,
                0.7615094780921936,
                0.7625805139541626,
                0.76365101337432861,
                0.76418650150299072,
                0.76525700092315674,
                0.76632750034332275,
                0.76686298847198486,
                0.76793348789215088,
                0.76900452375411987,
                0.77007496356964111,
                0.7711455225944519,
                0.77168101072311401,
                0.77275151014328003,
                0.77382248640060425,
                0.77489304542541504,
                0.77596348524093628,
                0.77703452110290527,
                0.77810502052307129,
                0.7791755199432373,
                0.78024649620056152,
                0.78078150749206543,
                0.78185248374938965,
                0.78292298316955566,
                0.78399348258972168,
                0.7855994701385498,
                0.7866705060005188,
                0.78774100542068481,
                0.78881150484085083,
                0.78988248109817505,
                0.79095304012298584,
                0.79202347993850708,
                0.79309403896331787,
                0.79416501522064209,
                0.7947005033493042,
                0.79577052593231201,
                0.79684150218963623,
                0.79898250102996826,
                0.80058896541595459,
                0.80272996425628662,
                0.80380052328109741,
                0.80540704727172852,
                0.80594253540039063,
                0.80701249837875366,
                0.80808353424072266,
                0.80915451049804688,
                0.81022453308105469,
                0.81129550933837891,
                0.81236648559570313,
                0.81504249572753906,
                0.81557798385620117,
                0.82200199365615845,
                0.8268200159072876,
                0.83110249042510986,
                0.83163797855377197,
                0.8332439661026001,
                0.83431446552276611,
                0.83484995365142822,
                0.83645600080490112,
                0.83806198835372925,
                0.83913248777389526,
                0.83966803550720215,
                0.84020352363586426,
                0.84127402305603027,
                0.84234452247619629,
                0.8428800106048584,
                0.84341549873352051,
                0.84448599815368652,
                0.84555649757385254,
                0.84662747383117676,
                0.84716248512268066,
                0.84823352098464966,
                0.84876847267150879,
                0.84983950853347778,
                0.8509100079536438,
                0.85198050737380981,
                0.85305148363113403,
                0.85358649492263794,
                0.85465753078460693,
                0.85519248247146606,
                0.85626351833343506,
                0.85733401775360107,
                0.85786950588226318,
                0.8589400053024292,
                0.86001050472259521,
                0.86108148097991943,
                0.86322247982025146,
                0.86429351568222046,
                0.8653639554977417,
                0.86643451452255249,
                0.86750549077987671,
                0.86857599020004272,
                0.86964648962020874,
                0.87071752548217773,
                0.87178802490234375,
                0.87339401245117188,
                0.87446451187133789,
                0.87553548812866211,
                0.87660598754882813,
                0.87767648696899414,
                0.87928247451782227,
                0.88088852167129517,
                0.88195949792861938,
                0.88356548547744751,
                0.88517153263092041,
                0.88677752017974854,
                0.88838350772857666,
                0.88998949527740479,
                0.89213049411773682,
                0.89427196979522705,
                0.89587795734405518,
                0.89801949262619019,
                0.89962548017501831,
                0.90390801429748535,
                0.91996800899505615,
                0.94780504703521729
              ],
            "feature_index":0,
            "flat_feature_index":0,
            "has_nans":false,
            "nan_value_treatment":"AsIs"
          },
          {
            "borders":
              [
                0.037878498435020447,
                0.053029999136924744,
                0.068181999027729034,
                0.083333499729633331,
                0.098484992980957031,
                0.11363649368286133,
                0.15909050405025482,
                0.20454499125480652,
                0.25,
                0.2651515007019043,
                0.28030300140380859,
                0.29545450210571289,
                0.31060600280761719,
                0.32575750350952148,
                0.34090900421142578,
                0.36363649368286133,
                0.38636350631713867,
                0.47727251052856445,
                0.60606050491333008,
                0.65909051895141602,
                0.71969699859619141,
                0.7348484992980957,
                0.75,
                0.7651515007019043,
                0.78030300140380859,
                0.79545450210571289
              ],
            "feature_index":1,
            "flat_feature_index":1,
            "has_nans":false,
            "nan_value_treatment":"AsIs"
          },
          {
            "borders":
              [
                0.10780249536037445,
                0.16724899411201477,
                0.17302000522613525,
                0.1752924919128418,
                0.17791450023651123,
                0.18096549808979034,
                0.18669050931930542,
                0.19475099444389343,
                0.19556050002574921,
                0.20307651162147522,
                0.20770299434661865,
                0.21090549230575562,
                0.21376800537109375,
                0.21675249934196472,
                0.21758249402046204,
                0.21832001209259033,
                0.22014950215816498,
                0.22181299328804016,
                0.22398251295089722,
                0.22756099700927734,
                0.23025350272655487,
                0.23212599754333496,
                0.23415350914001465,
                0.23544999957084656,
                0.23593950271606445,
                0.23798450827598572,
                0.23981399834156036,
                0.2402379959821701,
                0.24088999629020691,
                0.24263949692249298,
                0.24421750009059906,
                0.24460799992084503,
                0.24566099047660828,
                0.24693650007247925,
                0.248151496052742,
                0.249052494764328,
                0.24923598766326904,
                0.25144797563552856,
                0.25582149624824524,
                0.25900799036026001,
                0.26037600636482239,
                0.26154148578643799,
                0.26246050000190735,
                0.26419100165367126,
                0.26623600721359253,
                0.26701599359512329,
                0.26893150806427002,
                0.2707974910736084,
                0.27114951610565186,
                0.2716509997844696,
                0.27515199780464172,
                0.2771725058555603,
                0.27951598167419434,
                0.28115451335906982,
                0.28252851963043213,
                0.28418648242950439,
                0.28519448637962341,
                0.28630900382995605,
                0.2879830002784729,
                0.28896701335906982,
                0.29424700140953064,
                0.29562950134277344,
                0.2965644896030426,
                0.30016601085662842,
                0.30220550298690796,
                0.30292549729347229,
                0.30553251504898071,
                0.30939099192619324,
                0.31010299921035767,
                0.3118320107460022,
                0.31427949666976929,
                0.31602850556373596,
                0.31872549653053284,
                0.32207947969436646,
                0.32431000471115112,
                0.32524800300598145,
                0.32655298709869385,
                0.32838648557662964,
                0.32995498180389404,
                0.33083149790763855,
                0.33474498987197876,
                0.33677899837493896,
                0.34021049737930298,
                0.34337049722671509,
                0.34735548496246338,
                0.35278001427650452,
                0.35393500328063965,
                0.3562605082988739,
                0.35789501667022705,
                0.35927700996398926,
                0.3624805212020874,
                0.37911951541900635,
                0.39012199640274048,
                0.39293402433395386,
                0.40136650204658508,
                0.40684801340103149,
                0.41036251187324524,
                0.41224551200866699,
                0.41449350118637085,
                0.42202299833297729,
                0.42359799146652222,
                0.42521700263023376,
                0.42598551511764526,
                0.42677402496337891,
                0.43501099944114685,
                0.44025850296020508,
                0.44330751895904541,
                0.44617000222206116,
                0.45127397775650024,
                0.45546948909759521,
                0.45723050832748413,
                0.45916998386383057,
                0.46112698316574097,
                0.46427199244499207,
                0.46724548935890198,
                0.46863847970962524,
                0.4730989933013916,
                0.48041000962257385,
                0.49096000194549561,
                0.5011565089225769,
                0.50443649291992188,
                0.50727653503417969,
                0.51867103576660156,
                0.53155851364135742,
                0.53590750694274902,
                0.54025447368621826,
                0.54419195652008057,
                0.54750800132751465,
                0.55384504795074463,
                0.56050699949264526,
                0.56597745418548584,
                0.57086896896362305,
                0.57401800155639648,
                0.58594751358032227,
                0.59741848707199097,
                0.60407650470733643,
                0.61563646793365479,
                0.62166547775268555,
                0.62821745872497559,
                0.63934695720672607,
                0.65078151226043701,
                0.7631690502166748,
                0.77049899101257324
              ],
            "feature_index":2,
            "flat_feature_index":2,
            "has_nans":false,
            "nan_value_treatment":"AsIs"
          },
          {
            "borders":
              [
                0.14864799380302429,
                0.16880449652671814,
                0.19089999794960022,
                0.19436100125312805,
                0.19642150402069092,
                0.1974790096282959,
                0.20001399517059326,
                0.20645201206207275,
                0.20851500332355499,
                0.22820699214935303,
                0.23828350007534027,
                0.24941149353981018,
                0.25227949023246765,
                0.25514900684356689,
                0.27363401651382446,
                0.27623000741004944,
                0.28269350528717041,
                0.28881499171257019,
                0.30105751752853394,
                0.30798500776290894,
                0.31027048826217651,
                0.31136149168014526,
                0.31407099962234497,
                0.31690049171447754,
                0.32108497619628906,
                0.32349997758865356,
                0.3263009786605835,
                0.32825899124145508,
                0.3318830132484436,
                0.33559548854827881,
                0.34001648426055908,
                0.34390649199485779,
                0.3573949933052063,
                0.3610609769821167,
                0.36200648546218872,
                0.36285752058029175,
                0.36492401361465454,
                0.37562799453735352,
                0.37619102001190186,
                0.37756949663162231,
                0.37891000509262085,
                0.37966999411582947,
                0.38043299317359924,
                0.38893401622772217,
                0.39064699411392212,
                0.39230901002883911,
                0.39760148525238037,
                0.39976751804351807,
                0.40261751413345337,
                0.42125850915908813,
                0.42496597766876221,
                0.43435350060462952,
                0.44457098841667175,
                0.45182499289512634,
                0.47630351781845093,
                0.6424030065536499,
                0.66358548402786255,
                0.68241149187088013,
                0.69021701812744141,
                0.71368503570556641,
                0.72903048992156982,
                0.73653995990753174,
                0.7536274790763855,
                0.8042675256729126,
                0.83532547950744629
              ],
            "feature_index":3,
            "flat_feature_index":3,
            "has_nans":false,
            "nan_value_treatment":"AsIs"
          },
          {
            "borders":
              [
                0.24919299781322479,
                0.24990999698638916,
                0.26454299688339233,
                0.28111550211906433,
                0.29144448041915894,
                0.3277130126953125,
                0.33808448910713196,
                0.34685498476028442,
                0.35173299908638,
                0.35902750492095947,
                0.36774200201034546,
                0.37424850463867188,
                0.37824201583862305,
                0.37995648384094238,
                0.39378100633621216,
                0.40848049521446228,
                0.443930983543396,
                0.45042598247528076,
                0.45872950553894043,
                0.5032309889793396,
                0.50685203075408936,
                0.51561248302459717,
                0.517364501953125,
                0.52038347721099854,
                0.52283847332000732,
                0.52492153644561768,
                0.526497483253479,
                0.52836501598358154,
                0.53316950798034668,
                0.53674602508544922,
                0.54091548919677734,
                0.54201000928878784,
                0.54456746578216553,
                0.55413550138473511,
                0.55967152118682861,
                0.56152796745300293,
                0.56254005432128906,
                0.56382650136947632,
                0.5655590295791626,
                0.56860899925231934,
                0.57623100280761719,
                0.58562850952148438,
                0.58795797824859619,
                0.60676252841949463,
                0.60829198360443115,
                0.61023497581481934,
                0.612434983253479,
                0.61457699537277222,
                0.62236249446868896,
                0.62809550762176514,
                0.62920099496841431,
                0.62971848249435425,
                0.63043200969696045,
                0.63546299934387207,
                0.63749349117279053,
                0.63974201679229736,
                0.6423494815826416,
                0.64557349681854248,
                0.64768898487091064,
                0.64986401796340942,
                0.65089547634124756,
                0.65502703189849854,
                0.66001999378204346,
                0.66141295433044434,
                0.66251999139785767,
                0.66499149799346924,
                0.66688048839569092,
                0.66762447357177734,
                0.67007201910018921,
                0.67251050472259521,
                0.67415702342987061,
                0.68301045894622803,
                0.6870955228805542,
                0.6904904842376709,
                0.69972449541091919,
                0.70394802093505859,
                0.71759301424026489,
                0.7429879903793335,
                0.75901550054550171,
                0.76387202739715576,
                0.7678525447845459,
                0.76948952674865723,
                0.77162504196166992,
                0.77356946468353271,
                0.77493202686309814,
                0.8168255090713501,
                0.81840503215789795,
                0.91449451446533203,
                0.94562399387359619,
                0.94673848152160645,
                0.96377849578857422
              ],
            "feature_index":4,
            "flat_feature_index":4,
            "has_nans":false,
            "nan_value_treatment":"AsIs"
          },
          {
            "borders":
              [
                0.13126249611377716,
                0.17302000522613525,
                0.1752924919128418,
                0.17791450023651123,
                0.18096549808979034,
                0.1824910044670105,
                0.18669050931930542,
                0.19259500503540039,
                0.19475099444389343,
                0.19556050002574921,
                0.19744101166725159,
                0.19959449768066406,
                0.20072001218795776,
                0.2010824978351593,
                0.20307651162147522,
                0.20770299434661865,
                0.21090549230575562,
                0.21376849710941315,
                0.21675300598144531,
                0.21758249402046204,
                0.21832001209259033,
                0.22014950215816498,
                0.22181299328804016,
                0.22398251295089722,
                0.22756099700927734,
                0.23025350272655487,
                0.23212599754333496,
                0.23415350914001465,
                0.23544999957084656,
                0.23593950271606445,
                0.23798450827598572,
                0.23981399834156036,
                0.2402385026216507,
                0.2408905029296875,
                0.24263949692249298,
                0.24421750009059906,
                0.24460799992084503,
                0.24566099047660828,
                0.24693650007247925,
                0.248151496052742,
                0.24905198812484741,
                0.24923549592494965,
                0.25582149624824524,
                0.25900799036026001,
                0.26037600636482239,
                0.26154148578643799,
                0.26246050000190735,
                0.26419100165367126,
                0.26623600721359253,
                0.26701599359512329,
                0.26893150806427002,
                0.2707974910736084,
                0.27114951610565186,
                0.2716509997844696,
                0.27323001623153687,
                0.27515199780464172,
                0.2771725058555603,
                0.27951598167419434,
                0.28115451335906982,
                0.28252899646759033,
                0.28418698906898499,
                0.28519448637962341,
                0.28630948066711426,
                0.28798350691795349,
                0.28896701335906982,
                0.28971648216247559,
                0.29424649477005005,
                0.2965644896030426,
                0.29845049977302551,
                0.30016601085662842,
                0.30220550298690796,
                0.30292549729347229,
                0.30553251504898071,
                0.30860000848770142,
                0.31010299921035767,
                0.31427949666976929,
                0.31602850556373596,
                0.3167564868927002,
                0.31872549653053284,
                0.32431000471115112,
                0.34021049737930298,
                0.34735548496246338,
                0.35393500328063965,
                0.35789501667022705,
                0.41036200523376465,
                0.41847097873687744,
                0.42202299833297729,
                0.42359799146652222,
                0.42521750926971436,
                0.42677402496337891,
                0.43501099944114685,
                0.44025850296020508,
                0.44330698251724243,
                0.44616949558258057,
                0.45127397775650024,
                0.45546948909759521,
                0.45723050832748413,
                0.45916998386383057,
                0.46112698316574097,
                0.46427148580551147,
                0.46724498271942139,
                0.46863847970962524,
                0.4730989933013916,
                0.47722351551055908,
                0.48041000962257385,
                0.5011565089225769,
                0.50443649291992188,
                0.50727653503417969,
                0.51867049932479858,
                0.53155803680419922,
                0.53590750694274902,
                0.54025447368621826,
                0.54419195652008057,
                0.54750800132751465,
                0.55384504795074463,
                0.56050699949264526,
                0.56597745418548584,
                0.57086896896362305,
                0.57401800155639648,
                0.58594751358032227,
                0.59741795063018799,
                0.60407602787017822,
                0.61563646793365479,
                0.62166547775268555,
                0.63934695720672607,
                0.65078151226043701,
                0.71469849348068237
              ],
            "feature_index":5,
            "flat_feature_index":5,
            "has_nans":false,
            "nan_value_treatment":"AsIs"
          },
          {
            "borders":
              [
                0.10681299865245819,
                0.11503149569034576,
                0.11803849786520004,
                0.11940599977970123,
                0.1219715029001236,
                0.12415950000286102,
                0.12637649476528168,
                0.12972399592399597,
                0.13951149582862854,
                0.14864799380302429,
                0.15167400240898132,
                0.16880449652671814,
                0.17086800932884216,
                0.17285449802875519,
                0.17461849749088287,
                0.17532250285148621,
                0.17595949769020081,
                0.18246150016784668,
                0.19090050458908081,
                0.19436150789260864,
                0.20001399517059326,
                0.20251099765300751,
                0.20851500332355499,
                0.21091300249099731,
                0.21767100691795349,
                0.22820699214935303,
                0.23340049386024475,
                0.23828350007534027,
                0.24070650339126587,
                0.24337950348854065,
                0.24569898843765259,
                0.25227949023246765,
                0.25514900684356689,
                0.25918298959732056,
                0.27935701608657837,
                0.28583848476409912,
                0.28881499171257019,
                0.30217748880386353,
                0.31136149168014526,
                0.31690049171447754,
                0.31878799200057983,
                0.3263009786605835,
                0.32990151643753052,
                0.33559548854827881,
                0.33873200416564941,
                0.34001648426055908,
                0.34193748235702515,
                0.34604999423027039,
                0.3478894829750061,
                0.38043299317359924,
                0.38192799687385559,
                0.3838140070438385,
                0.38589000701904297,
                0.39230901002883911,
                0.40738099813461304,
                0.40967950224876404,
                0.41586798429489136,
                0.41802400350570679,
                0.42125850915908813,
                0.42182299494743347,
                0.42272350192070007,
                0.42812502384185791,
                0.43300950527191162,
                0.43435350060462952,
                0.56454801559448242,
                0.6424030065536499,
                0.69021701812744141,
                0.7821580171585083,
                0.8042680025100708
              ],
            "feature_index":6,
            "flat_feature_index":6,
            "has_nans":false,
            "nan_value_treatment":"AsIs"
          },
          {
            "borders":
              [
                0.22774499654769897,
                0.24177250266075134,
                0.24990999698638916,
                0.29144448041915894,
                0.31164151430130005,
                0.3194040060043335,
                0.3277130126953125,
                0.35902798175811768,
                0.37424850463867188,
                0.37995648384094238,
                0.39378100633621216,
                0.40848049521446228,
                0.42723500728607178,
                0.43287450075149536,
                0.443930983543396,
                0.45042598247528076,
                0.52836549282073975,
                0.53813850879669189,
                0.55413550138473511,
                0.56734549999237061,
                0.63749349117279053,
                0.63885402679443359,
                0.63974201679229736,
                0.6423494815826416,
                0.64557349681854248,
                0.66762447357177734,
                0.67415702342987061,
                0.68301045894622803,
                0.6904904842376709,
                0.69545996189117432,
                0.70630449056625366,
                0.70869648456573486,
                0.7191314697265625,
                0.71994197368621826,
                0.73751151561737061,
                0.7395244836807251,
                0.7429879903793335,
                0.75184452533721924,
                0.75625002384185791,
                0.75901603698730469,
                0.76387202739715576,
                0.7678525447845459,
                0.77162504196166992,
                0.77356946468353271,
                0.78751444816589355,
                0.79977154731750488,
                0.80488097667694092,
                0.82043254375457764,
                0.83326852321624756,
                0.85161495208740234,
                0.85527050495147705,
                0.86211949586868286,
                0.86686599254608154,
                0.87517452239990234,
                0.88392698764801025,
                0.90353000164031982,
                0.91131001710891724,
                0.91449451446533203,
                0.91572403907775879
              ],
            "feature_index":7,
            "flat_feature_index":7,
            "has_nans":false,
            "nan_value_treatment":"AsIs"
          }
        ]
    },
  "model_info":
    {
      "catboost_version_info":"Git info:\n    Commit: e94bcd3987d868ce0832af0a6aa61dc1b123ed45\n    Branch: heads/master\n    Author: somov <somov@yandex-team.ru>\n    Summary: Fix clang-cl build: contrib/libs/lzmasdk\n    git-svn info:\n    Last Changed Rev: 7251233\n\nOther info:\n    Build by: go\n    Top src dir: /var/lib/go-agent/pipelines/BuildMaster/catboost.git\n    Top build dir: /storage/.ya/build\n    Hostname: catboost-builder-linux\n    Host information: \n        Linux catboost-builder-linux 4.15.0-76-generic #86-Ubuntu SMP Fri Jan 17 17:24:28 UTC 2020 x86_64\n\n    ",
      "model_guid":"c8507cbf-89ae003-3780b694-2ddb581d",
      "output_options":"{\"name\":\"experiment\",\"verbose\":1,\"test_error_log\":\"test_error.tsv\",\"json_log\":\"catboost_training.json\",\"result_model_file\":\"model\",\"roc_file\":\"\",\"eval_file_name\":\"\",\"use_best_model\":true,\"allow_writing_files\":true,\"prediction_type\":[\"RawFormulaVal\"],\"fstr_internal_file\":\"\",\"output_columns\":[\"SampleId\",\"RawFormulaVal\",\"Label\"],\"snapshot_interval\":600,\"time_left_log\":\"time_left.tsv\",\"fstr_type\":\"FeatureImportance\",\"profile_log\":\"catboost_profile.log\",\"train_dir\":\"catboost_info\",\"learn_error_log\":\"learn_error.tsv\",\"training_options_file\":\"\",\"snapshot_file\":\"experiment.cbsnapshot\",\"save_snapshot\":false,\"model_format\":[\"CatboostBinary\"],\"final_feature_calcer_computation_mode\":\"Default\",\"metric_period\":1,\"output_borders\":\"\",\"final_ctr_computation_mode\":\"Default\",\"best_model_min_trees\":1,\"fstr_regular_file\":\"\"}",
      "params":
        {
          "boosting_options":
            {
              "approx_on_full_history":false,
              "boost_from_average":true,
              "boosting_type":"Plain",
              "fold_len_multiplier":2,
              "fold_permutation_block":0,
              "iterations":1000,
              "learning_rate":0.0099999997764825821,
              "model_shrink_mode":"Constant",
              "model_shrink_rate":0,
              "od_config":
                {
                  "stop_pvalue":0,
                  "type":"None",
                  "wait_iterations":20
                },
              "permutation_count":4,
              "posterior_sampling":false
            },
          "cat_feature_params":
            {
              "combinations_ctrs":
                [
                  {
                    "ctr_binarization":
                      {
                        "border_count":15,
                        "border_type":"Uniform"
                      },
                    "ctr_type":"Borders",
                    "prior_estimation":"No",
                    "priors":
                      [
                        [
                          0,
                          1
                        ],
                        [
                          0.5,
                          1
                        ],
                        [
                          1,
                          1
                        ]
                      ],
                    "target_binarization":
                      {
                        "border_count":1,
                        "border_type":"MinEntropy"
                      }
                  },
                  {
                    "ctr_binarization":
                      {
                        "border_count":15,
                        "border_type":"Uniform"
                      },
                    "ctr_type":"Counter",
                    "prior_estimation":"No",
                    "priors":
                      [
                        [
                          0,
                          1
                        ]
                      ]
                  }
                ],
              "counter_calc_method":"SkipTest",
              "ctr_leaf_count_limit":18446744073709551615,
              "max_ctr_complexity":4,
              "one_hot_max_size":2,
              "per_feature_ctrs":
                {
                },
              "simple_ctrs":
                [
                  {
                    "ctr_binarization":
                      {
                        "border_count":15,
                        "border_type":"Uniform"
                      },
                    "ctr_type":"Borders",
                    "prior_estimation":"No",
                    "priors":
                      [
                        [
                          0,
                          1
                        ],
                        [
                          0.5,
                          1
                        ],
                        [
                          1,
                          1
                        ]
                      ],
                    "target_binarization":
                      {
                        "border_count":1,
                        "border_type":"MinEntropy"
                      }
                  },
                  {
                    "ctr_binarization":
                      {
                        "border_count":15,
                        "border_type":"Uniform"
                      },
                    "ctr_type":"Counter",
                    "prior_estimation":"No",
                    "priors":
                      [
                        [
                          0,
                          1
                        ]
                      ]
                  }
                ],
              "store_all_simple_ctr":false,
              "target_binarization":
                {
                  "border_count":1,
                  "border_type":"MinEntropy"
                }
            },
          "data_processing_options":
            {
              "allow_const_label":false,
              "auto_class_weights":"None",
              "class_names":
                [
                ],
              "class_weights":
                [
                ],
              "classes_count":0,
              "dev_default_value_fraction_for_sparse":0.82999998331069946,
              "dev_group_features":false,
              "dev_leafwise_scoring":false,
              "dev_sparse_array_indexing":"Indices",
              "float_features_binarization":
                {
                  "border_count":254,
                  "border_type":"GreedyLogSum",
                  "dev_max_subset_size_for_build_borders":200000,
                  "nan_mode":"Min"
                },
              "has_time":false,
              "ignored_features":
                [
                ],
              "per_float_feature_quantization":
                {
                },
              "target_border":null,
              "text_processing_options":
                {
                  "dictionaries":
                    [
                      {
                        "dictionary_id":"BiGram",
                        "end_of_sentence_token_policy":"Skip",
                        "end_of_word_token_policy":"Insert",
                        "gram_order":"2",
                        "max_dictionary_size":"50000",
                        "occurrence_lower_bound":"5",
                        "skip_step":"0",
                        "start_token_id":"0",
                        "token_level_type":"Word"
                      },
                      {
                        "dictionary_id":"Word",
                        "end_of_sentence_token_policy":"Skip",
                        "end_of_word_token_policy":"Insert",
                        "gram_order":"1",
                        "max_dictionary_size":"50000",
                        "occurrence_lower_bound":"5",
                        "skip_step":"0",
                        "start_token_id":"0",
                        "token_level_type":"Word"
                      }
                    ],
                  "feature_processing":
                    {
                      "default":
                        [
                          {
                            "dictionaries_names":
                              [
                                "BiGram",
                                "Word"
                              ],
                            "feature_calcers":
                              [
                                "BoW"
                              ],
                            "tokenizers_names":
                              [
                                "Space"
                              ]
                          },
                          {
                            "dictionaries_names":
                              [
                                "Word"
                              ],
                            "feature_calcers":
                              [
                                "NaiveBayes"
                              ],
                            "tokenizers_names":
                              [
                                "Space"
                              ]
                          }
                        ]
                    },
                  "tokenizers":
                    [
                      {
                        "delimiter":" ",
                        "languages":
                          [
                          ],
                        "lemmatizing":"0",
                        "lowercasing":"0",
                        "number_process_policy":"LeaveAsIs",
                        "number_token":"🔢",
                        "separator_type":"ByDelimiter",
                        "skip_empty":"1",
                        "split_by_set":"0",
                        "subtokens_policy":"SingleToken",
                        "token_types":
                          [
                            "Number",
                            "Unknown",
                            "Word"
                          ],
                        "tokenizer_id":"Space"
                      }
                    ]
                }
            },
          "detailed_profile":false,
          "flat_params":
            {
              "iterations":1000,
              "learning_rate":0.01,
              "loss_function":"Quantile"
            },
          "logging_level":"Verbose",
          "loss_function":
            {
              "params":
                {
                },
              "type":"Quantile"
            },
          "metadata":
            {
            },
          "metrics":
            {
              "custom_metrics":
                [
                ],
              "eval_metric":
                {
                  "params":
                    {
                    },
                  "type":"Quantile"
                },
              "objective_metric":
                {
                  "params":
                    {
                    },
                  "type":"Quantile"
                }
            },
          "random_seed":0,
          "system_options":
            {
              "file_with_hosts":"hosts.txt",
              "node_port":0,
              "node_type":"SingleHost",
              "thread_count":8,
              "used_ram_limit":""
            },
          "task_type":"CPU",
          "tree_learner_options":
            {
              "bayesian_matrix_reg":0.10000000149011612,
              "bootstrap":
                {
                  "mvs_reg":null,
                  "subsample":0.80000001192092896,
                  "type":"MVS"
                },
              "depth":6,
              "dev_efb_max_buckets":1024,
              "dev_leafwise_approxes":false,
              "dev_score_calc_obj_block_size":5000000,
              "grow_policy":"SymmetricTree",
              "l2_leaf_reg":3,
              "leaf_estimation_backtracking":"AnyImprovement",
              "leaf_estimation_iterations":1,
              "leaf_estimation_method":"Exact",
              "max_leaves":64,
              "min_data_in_leaf":1,
              "model_size_reg":0.5,
              "monotone_constraints":
                {
                },
              "penalties":
                {
                  "feature_weights":
                    {
                    },
                  "first_feature_use_penalties":
                    {
                    },
                  "penalties_coefficient":1,
                  "per_object_feature_penalties":
                    {
                    }
                },
              "random_strength":1,
              "rsm":1,
              "sampling_frequency":"PerTree",
              "score_function":"Cosine",
              "sparse_features_conflict_fraction":0
            }
        },
      "train_finish_time":"2020-11-04T10:40:57Z"
    },
  "oblivious_trees":
    [
      {
        "leaf_values":
          [
            0,
            0,
            0.019999980479479262,
            0,
            0.019999980479479262,
            0.019999980479479262,
            -1.327896074505475e-10,
            -1.327896074505475e-10,
            0,
            0,
            0,
            0,
            0,
            -1.327896074505475e-10,
            0,
            -1.327896074505475e-10,
            0.019999980479479262,
            0,
            0.019999980479479262,
            0,
            0.019999980479479262,
            -1.327896074505475e-10,
            -1.327896074505475e-10,
            -1.327896074505475e-10,
            0,
            0,
            0,
            0,
            0,
            -1.327896074505475e-10,
            0,
            -1.327896074505475e-10,
            0,
            0,
            0.019999980479479262,
            0,
            0.019999980479479262,
            0.019999980479479262,
            0.019999980479479262,
            -1.327896074505475e-10,
            0,
            0,
            0,
            0,
            0,
            -1.327896074505475e-10,
            0,
            -1.327896074505475e-10,
            0,
            0,
            0.019999980479479262,
            0,
            0.019999980479479262,
            0.019999980479479262,
            -1.327896074505475e-10,
            -1.327896074505475e-10,
            0,
            0,
            0,
            0,
            0,
            -1.327896074505475e-10,
            0,
            -1.327896074505475e-10
          ],
        "leaf_weights":
          [
            0,
            0,
            6085,
            0,
            11140,
            10307,
            12507,
            4964,
            0,
            0,
            0,
            0,
            0,
            53592,
            0,
            1815,
            498,
            0,
            33093,
            0,
            67703,
            38854,
            54385,
            8268,
            0,
            0,
            0,
            0,
            0,
            89382,
            0,
            1538,
            0,
            0,
            194,
            0,
            46,
            426,
            415,
            434,
            0,
            0,
            0,
            0,
            0,
            10492,
            0,
            448,
            0,
            0,
            1250,
            0,
            1366,
            3251,
            2040,
            1250,
            0,
            0,
            0,
            0,
            0,
            23387,
            0,
            578
          ],
        "splits":
          [
            {
              "border":0.77275151014328003,
              "float_feature_index":0,
              "split_index":76,
              "split_type":"FloatFeature"
            },
            {
              "border":0.36363649368286133,
              "float_feature_index":1,
              "split_index":194,
              "split_type":"FloatFeature"
            },
            {
              "border":0.65497851371765137,
              "float_feature_index":0,
              "split_index":14,
              "split_type":"FloatFeature"
            },
            {
              "border":0.81129550933837891,
              "float_feature_index":0,
              "split_index":110,
              "split_type":"FloatFeature"
            },
            {
              "border":0.56382650136947632,
              "float_feature_index":4,
              "split_index":450,
              "split_type":"FloatFeature"
            },
            {
              "border":0.44330698251724243,
              "float_feature_index":5,
              "split_index":596,
              "split_type":"FloatFeature"
            }
          ]
      },
      {
        "leaf_values":
          [
            0,
            0,
            0.019799999748170372,
            0,
            0.01979998067468447,
            0.019799999748170372,
            -1.3146174521563905e-10,
            -1.3146174521563905e-10,
            0.01979998067468447,
            0,
            0.01979998067468447,
            0,
            0.01979998067468447,
            -1.3146174521563905e-10,
            -1.3146174521563905e-10,
            -1.3146174521563905e-10,
            0,
            0,
            0,
            0,
            0,
            -1.3146174521563905e-10,
            0,
            -1.3146174521563905e-10,
            0,
            0,
            0,
            0,
            0,
            -1.3146174521563905e-10,
            0,
            -1.3146174521563905e-10,
            0,
            0,
            0.01979998067468447,
            0,
            0.01979998067468447,
            0.019799999748170372,
            0.01979998067468447,
            -1.3146174521563905e-10,
            0,
            0,
            0.019799999748170372,
            0,
            0.019799999748170372,
            0.019799999748170372,
            -1.3146174521563905e-10,
            -1.3146174521563905e-10,
            0,
            0,
            0,
            0,
            0,
            -1.3146174521563905e-10,
            0,
            -1.3146174521563905e-10,
            0,
            0,
            0,
            0,
            0,
            -1.3146174521563905e-10,
            0,
            -1.3146174521563905e-10
          ],
        "leaf_weights":
          [
            0,
            0,
            2238,
            0,
            3329,
            6925,
            5881,
            2116,
            576,
            0,
            37479,
            0,
            80193,
            57804,
            61949,
            8424,
            0,
            0,
            0,
            0,
            0,
            28517,
            0,
            567,
            0,
            0,
            0,
            0,
            0,
            80309,
            0,
            1077,
            0,
            0,
            84,
            0,
            60,
            412,
            395,
            379,
            0,
            0,
            2350,
            0,
            4489,
            7174,
            4648,
            2473,
            0,
            0,
            0,
            0,
            0,
            7368,
            0,
            222,
            0,
            0,
            0,
            0,
            0,
            31629,
            0,
            641
          ],
        "splits":
          [
            {
              "border":0.78024649620056152,
              "float_feature_index":0,
              "split_index":83,
              "split_type":"FloatFeature"
            },
            {
              "border":0.29545450210571289,
              "float_feature_index":1,
              "split_index":190,
              "split_type":"FloatFeature"
            },
            {
              "border":0.65979647636413574,
              "float_feature_index":0,
              "split_index":15,
              "split_type":"FloatFeature"
            },
            {
              "border":0.5032309889793396,
              "float_feature_index":4,
              "split_index":432,
              "split_type":"FloatFeature"
            },
            {
              "border":0.8268200159072876,
              "float_feature_index":0,
              "split_index":115,
              "split_type":"FloatFeature"
            },
            {
              "border":0.41036200523376465,
              "float_feature_index":5,
              "split_index":588,
              "split_type":"FloatFeature"
            }
          ]
      },
      {
        "leaf_values":
          [
            0,
            0,
            0.019601999083116661,
            0,
            0.019601980009630759,
            0.019601980009630759,
            -1.3014752540095228e-10,
            -1.3014752540095228e-10,
            0,
            0,
            0,
            0,
            0,
            -1.3014752540095228e-10,
            0,
            -1.3014752540095228e-10,
            0.019601980009630759,
            0,
            0.019601980009630759,
            0,
            0.019601980009630759,
            -1.3014752540095228e-10,
            -1.3014752540095228e-10,
            -2.0130148191384676e-08,
            0,
            0,
            0,
            0,
            0,
            -1.3014752540095228e-10,
            0,
            -1.3014752540095228e-10,
            0,
            0,
            0.019601980009630759,
            0,
            0.019601999083116661,
            0.019601999083116661,
            0.019601999083116661,
            -2.0130148191384676e-08,
            0,
            0,
            0,
            0,
            0,
            -1.3014752540095228e-10,
            0,
            -1.3014752540095228e-10,
            0.019601980009630759,
            0,
            0.019601999083116661,
            0,
            0.019601999083116661,
            0.019601980009630759,
            -1.3014752540095228e-10,
            -1.3014752540095228e-10,
            0,
            0,
            0,
            0,
            0,
            -1.3014752540095228e-10,
            0,
            -2.0130148191384676e-08
          ],
        "leaf_weights":
          [
            0,
            0,
            3743,
            0,
            5329,
            5314,
            8189,
            2742,
            0,
            0,
            0,
            0,
            0,
            40422,
            0,
            1705,
            708,
            0,
            36383,
            0,
            75016,
            32950,
            57323,
            7693,
            0,
            0,
            0,
            0,
            0,
            108284,
            0,
            1833,
            0,
            0,
            122,
            0,
            73,
            191,
            429,
            317,
            0,
            0,
            0,
            0,
            0,
            8152,
            0,
            440,
            1,
            0,
            1770,
            0,
            2262,
            3212,
            3136,
            1541,
            0,
            0,
            0,
            0,
            0,
            29406,
            0,
            1022
          ],
        "splits":
          [
            {
              "border":0.77489304542541504,
              "float_feature_index":0,
              "split_index":78,
              "split_type":"FloatFeature"
            },
            {
              "border":0.60606050491333008,
              "float_feature_index":1,
              "split_index":197,
              "split_type":"FloatFeature"
            },
            {
              "border":0.65979647636413574,
              "float_feature_index":0,
              "split_index":15,
              "split_type":"FloatFeature"
            },
            {
              "border":0.80594253540039063,
              "float_feature_index":0,
              "split_index":105,
              "split_type":"FloatFeature"
            },
            {
              "border":0.54091548919677734,
              "float_feature_index":4,
              "split_index":443,
              "split_type":"FloatFeature"
            },
            {
              "border":0.42359799146652222,
              "float_feature_index":5,
              "split_index":591,
              "split_type":"FloatFeature"
            }
          ]
      },
      {
        "leaf_values":
          [
            0.019405960602925099,
            0,
            0.019405960602925099,
            0,
            0.019405960602925099,
            0,
            -1.2884581113813535e-10,
            0,
            0,
            0,
            0,
            0,
            0.019405960602925099,
            -1.2884581113813535e-10,
            -1.2884581113813535e-10,
            -1.2884581113813535e-10,
            0.019405960602925099,
            0,
            0.019405960602925099,
            0,
            0.019405960602925099,
            0,
            -1.2884581113813535e-10,
            0,
            0,
            0,
            0,
            0,
            0.019405979676411,
            -1.2884581113813535e-10,
            -1.2884581113813535e-10,
            -1.2884581113813535e-10,
            0.019405960602925099,
            0,
            0.019405960602925099,
            0,
            0.019405960602925099,
            0,
            -1.2884581113813535e-10,
            0,
            0,
            0,
            0,
            0,
            -2.0128845340253507e-08,
            -1.2884581113813535e-10,
            -1.2884581113813535e-10,
            -1.9928845186067237e-08,
            0.019405960602925099,
            0,
            0.019405960602925099,
            0,
            0.019405960602925099,
            0,
            -1.2884581113813535e-10,
            0,
            0,
            0,
            0,
            0,
            0.019405960602925099,
            -1.2884581113813535e-10,
            -1.2884581113813535e-10,
            -1.2884581113813535e-10
          ],
        "leaf_weights":
          [
            23,
            0,
            11308,
            0,
            17652,
            0,
            19279,
            0,
            0,
            0,
            0,
            0,
            9691,
            65510,
            6175,
            4437,
            2,
            0,
            1417,
            0,
            3214,
            0,
            3095,
            0,
            0,
            0,
            0,
            0,
            3170,
            38435,
            1579,
            2260,
            306,
            0,
            23408,
            0,
            39647,
            0,
            35901,
            0,
            0,
            0,
            0,
            0,
            13476,
            63146,
            5042,
            1899,
            12,
            0,
            2902,
            0,
            9459,
            0,
            6459,
            0,
            0,
            0,
            0,
            0,
            5354,
            42223,
            1767,
            1460
          ],
        "splits":
          [
            {
              "border":0.78988248109817505,
              "float_feature_index":0,
              "split_index":92,
              "split_type":"FloatFeature"
            },
            {
              "border":0.60606050491333008,
              "float_feature_index":1,
              "split_index":197,
              "split_type":"FloatFeature"
            },
            {
              "border":0.64962548017501831,
              "float_feature_index":0,
              "split_index":13,
              "split_type":"FloatFeature"
            },
            {
              "border":0.76365101337432861,
              "float_feature_index":0,
              "split_index":66,
              "split_type":"FloatFeature"
            },
            {
              "border":0.42125850915908813,
              "float_feature_index":3,
              "split_index":397,
              "split_type":"FloatFeature"
            },
            {
              "border":0.63974201679229736,
              "float_feature_index":7,
              "split_index":722,
              "split_type":"FloatFeature"
            }
          ]
      },
      {
        "leaf_values":
          [
            0,
            0,
            0,
            0,
            0.019211900996895848,
            0,
            0,
            0,
            0,
            0,
            0,
            0,
            0.019211920070381749,
            0.019999980479479262,
            0,
            0,
            0.019211900996895848,
            0,
            0.019211900996895848,
            0,
            0.019211900996895848,
            0,
            -1.2755660242718829e-10,
            0,
            0,
            0,
            0,
            0,
            7.2442414890729353e-11,
            -1.2755660242718829e-10,
            -1.2755660242718829e-10,
            -1.2755660242718829e-10,
            0,
            0,
            0,
            0,
            0,
            0,
            0,
            0,
            0,
            0,
            0,
            0,
            0,
            -1.2755660242718829e-10,
            0,
            0,
            0,
            0,
            0,
            0,
            0,
            0,
            0,
            0,
            0,
            0,
            0,
            0,
            0,
            -1.2755660242718829e-10,
            0,
            -1.2755660242718829e-10
          ],
        "leaf_weights":
          [
            0,
            0,
            0,
            0,
            90,
            0,
            0,
            0,
            0,
            0,
            0,
            0,
            743,
            9613,
            0,
            0,
            707,
            0,
            42020,
            0,
            71181,
            0,
            62949,
            0,
            0,
            0,
            0,
            0,
            31816,
            120300,
            14452,
            9557,
            0,
            0,
            0,
            0,
            0,
            0,
            0,
            0,
            0,
            0,
            0,
            0,
            0,
            24840,
            0,
            0,
            0,
            0,
            0,
            0,
            0,
            0,
            0,
            0,
            0,
            0,
            0,
            0,
            0,
            51195,
            0,
            245
          ],
        "splits":
          [
            {
              "border":0.79202347993850708,
              "float_feature_index":0,
              "split_index":94,
              "split_type":"FloatFeature"
            },
            {
              "border":0.47727251052856445,
              "float_feature_index":1,
              "split_index":196,
              "split_type":"FloatFeature"
            },
            {
              "border":0.65979647636413574,
              "float_feature_index":0,
              "split_index":15,
              "split_type":"FloatFeature"
            },
            {
              "border":0.76525700092315674,
              "float_feature_index":0,
              "split_index":68,
              "split_type":"FloatFeature"
            },
            {
              "border":0.083333499729633331,
              "float_feature_index":1,
              "split_index":182,
              "split_type":"FloatFeature"
            },
            {
              "border":0.86429351568222046,
              "float_feature_index":0,
              "split_index":150,
              "split_type":"FloatFeature"
            }
          ]
      },
      {
        "leaf_values":
          [
            0.019019782118057105,
            0,
            0.019019782118057105,
            0,
            0.019019782118057105,
            0,
            -1.2628103613646289e-10,
            0,
            0,
            0,
            0,
            0,
            0.019019782118057105,
            -1.2628103613646289e-10,
            -1.2628103613646289e-10,
            7.1718229750629458e-11,
            0,
            0,
            0.019019782118057105,
            0,
            0.019019801191543007,
            0,
            0.019999980479479262,
            0,
            0,
            0,
            0,
            0,
            0.019211900996895848,
            0.019601999083116661,
            -1.2628103613646289e-10,
            -1.2628103613646289e-10,
            0,
            0,
            0,
            0,
            0,
            0,
            0,
            0,
            0,
            0,
            0,
            0,
            0,
            -1.2628103613646289e-10,
            0,
            -1.2628103613646289e-10,
            0,
            0,
            0,
            0,
            0,
            0,
            0,
            0,
            0,
            0,
            0,
            0,
            0,
            -1.2628103613646289e-10,
            0,
            -1.2628103613646289e-10
          ],
        "leaf_weights":
          [
            692,
            0,
            40541,
            0,
            52569,
            0,
            48898,
            0,
            0,
            0,
            0,
            0,
            47340,
            108327,
            23340,
            6640,
            0,
            0,
            1494,
            0,
            358,
            0,
            2253,
            0,
            0,
            0,
            0,
            0,
            2114,
            9144,
            2503,
            3192,
            0,
            0,
            0,
            0,
            0,
            0,
            0,
            0,
            0,
            0,
            0,
            0,
            0,
            64009,
            0,
            81,
            0,
            0,
            0,
            0,
            0,
            0,
            0,
            0,
            0,
            0,
            0,
            0,
            0,
            25891,
            0,
            322
          ],
        "splits":
          [
            {
              "border":0.79095304012298584,
              "float_feature_index":0,
              "split_index":93,
              "split_type":"FloatFeature"
            },
            {
              "border":0.36363649368286133,
              "float_feature_index":1,
              "split_index":194,
              "split_type":"FloatFeature"
            },
            {
              "border":0.65979647636413574,
              "float_feature_index":0,
              "split_index":15,
              "split_type":"FloatFeature"
            },
            {
              "border":0.74919700622558594,
              "float_feature_index":0,
              "split_index":50,
              "split_type":"FloatFeature"
            },
            {
              "border":0.44617000222206116,
              "float_feature_index":2,
              "split_index":312,
              "split_type":"FloatFeature"
            },
            {
              "border":0.85626351833343506,
              "float_feature_index":0,
              "split_index":143,
              "split_type":"FloatFeature"
            }
          ]
      },
      {
        "leaf_values":
          [
            0,
            0,
            0.018829602774316001,
            0,
            0.018829602774316001,
            0,
            -1.2501911226595915e-10,
            0,
            0,
            0,
            0,
            0,
            0.019021702579668842,
            -1.2501911226595915e-10,
            -1.2501911226595915e-10,
            -2.0125018641381331e-08,
            0,
            0,
            0.018829602774316001,
            0,
            0.018829602774316001,
            0,
            0.019405960602925099,
            0,
            0,
            0,
            0,
            0,
            0.019021702579668842,
            -1.2501911226595915e-10,
            7.4981041920310302e-11,
            -2.0125018641381331e-08,
            0.018829583700830099,
            0,
            0.018829583700830099,
            0,
            0.018829583700830099,
            0,
            -1.2501911226595915e-10,
            0,
            0,
            0,
            0,
            0,
            -0.00019021775148322234,
            -2.0125018641381331e-08,
            7.4981041920310302e-11,
            -1.9926998911863906e-08,
            0,
            0,
            0.018829602774316001,
            0,
            0.018829602774316001,
            0,
            -1.2501911226595915e-10,
            0,
            0,
            0,
            0,
            0,
            0.019021702579668842,
            -1.2501911226595915e-10,
            -1.2501911226595915e-10,
            -1.9926998911863906e-08
          ],
        "leaf_weights":
          [
            0,
            0,
            3283,
            0,
            4841,
            0,
            7423,
            0,
            0,
            0,
            0,
            0,
            2035,
            41669,
            1238,
            2758,
            0,
            0,
            101,
            0,
            60,
            0,
            398,
            0,
            0,
            0,
            0,
            0,
            52,
            7866,
            117,
            591,
            702,
            0,
            36849,
            0,
            77825,
            0,
            59228,
            0,
            0,
            0,
            0,
            0,
            13963,
            126394,
            4464,
            4962,
            0,
            0,
            1792,
            0,
            2379,
            0,
            3353,
            0,
            0,
            0,
            0,
            0,
            1240,
            31450,
            759,
            1916
          ],
        "splits":
          [
            {
              "border":0.79095304012298584,
              "float_feature_index":0,
              "split_index":93,
              "split_type":"FloatFeature"
            },
            {
              "border":0.38636350631713867,
              "float_feature_index":1,
              "split_index":195,
              "split_type":"FloatFeature"
            },
            {
              "border":0.65979647636413574,
              "float_feature_index":0,
              "split_index":15,
              "split_type":"FloatFeature"
            },
            {
              "border":0.77703452110290527,
              "float_feature_index":0,
              "split_index":80,
              "split_type":"FloatFeature"
            },
            {
              "border":0.42359799146652222,
              "float_feature_index":5,
              "split_index":591,
              "split_type":"FloatFeature"
            },
            {
              "border":0.53316950798034668,
              "float_feature_index":4,
              "split_index":441,
              "split_type":"FloatFeature"
            }
          ]
      },
      {
        "leaf_values":
          [
            0,
            0.018639386475695963,
            0,
            0,
            0,
            0.01960396007588594,
            0,
            0,
            0,
            0,
            0,
            0,
            0,
            -1.2376855707897346e-10,
            0,
            0,
            0,
            0.018641287863821798,
            0.018641287863821798,
            -1.2376855707897346e-10,
            0,
            -1.2376855707897346e-10,
            0,
            -1.992574835667692e-08,
            0,
            0,
            0,
            0,
            0,
            -1.2376855707897346e-10,
            0,
            -1.9923767932008075e-08,
            0,
            0.018641287863821798,
            0,
            0,
            0,
            0.019601980009630759,
            0,
            0,
            0,
            0,
            0,
            0,
            0,
            -1.2376855707897346e-10,
            0,
            0,
            0.018641287863821798,
            0.018641287863821798,
            0.018641287863821798,
            -1.2376855707897346e-10,
            0,
            -1.9923767932008075e-08,
            0,
            -1.9925768820307253e-08,
            0,
            0,
            0,
            0,
            0,
            -1.9923767932008075e-08,
            0,
            -1.9725748202490651e-08
          ],
        "leaf_weights":
          [
            0,
            44,
            0,
            0,
            0,
            5698,
            0,
            0,
            0,
            0,
            0,
            0,
            0,
            14502,
            0,
            0,
            0,
            3104,
            2676,
            6044,
            0,
            18018,
            0,
            5351,
            0,
            0,
            0,
            0,
            0,
            12670,
            0,
            50,
            0,
            341,
            0,
            0,
            0,
            6394,
            0,
            0,
            0,
            0,
            0,
            0,
            0,
            9516,
            0,
            0,
            760,
            70934,
            35942,
            55203,
            0,
            146155,
            0,
            16518,
            0,
            0,
            0,
            0,
            0,
            29774,
            0,
            14
          ],
        "splits":
          [
            {
              "border":0.64962548017501831,
              "float_feature_index":0,
              "split_index":13,
              "split_type":"FloatFeature"
            },
            {
              "border":0.7348484992980957,
              "float_feature_index":1,
              "split_index":200,
              "split_type":"FloatFeature"
            },
            {
              "border":0.76418650150299072,
              "float_feature_index":0,
              "split_index":67,
              "split_type":"FloatFeature"
            },
            {
              "border":0.87071752548217773,
              "float_feature_index":0,
              "split_index":156,
              "split_type":"FloatFeature"
            },
            {
              "border":0.098484992980957031,
              "float_feature_index":1,
              "split_index":183,
              "split_type":"FloatFeature"
            },
            {
              "border":0.52038347721099854,
              "float_feature_index":4,
              "split_index":436,
              "split_type":"FloatFeature"
            }
          ]
      },
      {
        "leaf_values":
          [
            0,
            0.018452972953327595,
            0,
            0,
            0,
            0.019407920403601508,
            0,
            0,
            0,
            0,
            0,
            0,
            0,
            -1.2253050744385762e-10,
            0,
            0,
            0,
            0.018454894607032202,
            0.018454893414939333,
            -1.2253050744385762e-10,
            0,
            -1.2253050744385762e-10,
            0,
            2.7350894270920805e-10,
            0,
            0,
            0,
            0,
            0,
            -1.2253050744385762e-10,
            0,
            -1.9724531753354219e-08,
            0,
            0.018454874341453431,
            0,
            0,
            0,
            0.019405960602925099,
            0,
            0,
            0,
            0,
            0,
            0,
            0,
            -1.2253050744385762e-10,
            0,
            0,
            0.0184548755335463,
            0.0184548755335463,
            0.0184548755335463,
            -1.2253050744385762e-10,
            0,
            -1.9724531753354219e-08,
            0,
            -1.972650990428636e-08,
            0,
            0,
            0,
            0,
            0,
            -1.9724531753354219e-08,
            0,
            -1.9528490174768935e-08
          ],
        "leaf_weights":
          [
            0,
            71,
            0,
            0,
            0,
            6632,
            0,
            0,
            0,
            0,
            0,
            0,
            0,
            13714,
            0,
            0,
            0,
            3724,
            2270,
            6916,
            0,
            19746,
            0,
            4922,
            0,
            0,
            0,
            0,
            0,
            10334,
            0,
            13,
            0,
            59,
            0,
            0,
            0,
            6339,
            0,
            0,
            0,
            0,
            0,
            0,
            0,
            8471,
            0,
            0,
            477,
            76535,
            33367,
            60325,
            0,
            151422,
            0,
            13979,
            0,
            0,
            0,
            0,
            0,
            20386,
            0,
            6
          ],
        "splits":
          [
            {
              "border":0.63945400714874268,
              "float_feature_index":0,
              "split_index":11,
              "split_type":"FloatFeature"
            },
            {
              "border":0.7348484992980957,
              "float_feature_index":1,
              "split_index":200,
              "split_type":"FloatFeature"
            },
            {
              "border":0.76900452375411987,
              "float_feature_index":0,
              "split_index":72,
              "split_type":"FloatFeature"
            },
            {
              "border":0.88088852167129517,
              "float_feature_index":0,
              "split_index":164,
              "split_type":"FloatFeature"
            },
            {
              "border":0.083333499729633331,
              "float_feature_index":1,
              "split_index":182,
              "split_type":"FloatFeature"
            },
            {
              "border":0.52283847332000732,
              "float_feature_index":4,
              "split_index":437,
              "split_type":"FloatFeature"
            }
          ]
      },
      {
        "leaf_values":
          [
            0,
            0,
            0,
            0,
            0.018268462011177933,
            0.019213841724086356,
            0,
            0,
            0,
            0,
            0,
            0,
            0,
            -1.2130610022896345e-10,
            0,
            0,
            0,
            0,
            0,
            0,
            0.018270326444424834,
            0.019211900996895848,
            0,
            0,
            0,
            0,
            0,
            0,
            0,
            -1.2130610022896345e-10,
            0,
            0,
            0,
            0,
            0.018270345517910735,
            0,
            0.018270326444424834,
            -1.2130610022896345e-10,
            -1.2130610022896345e-10,
            -1.9729227019647174e-08,
            0,
            0,
            0,
            0,
            0,
            -1.2130610022896345e-10,
            0,
            -1.2130610022896345e-10,
            0.018270326444424834,
            0,
            0.018270326444424834,
            0,
            0.018270326444424834,
            -1.9527285094316022e-08,
            -1.2130610022896345e-10,
            -1.9529245055354534e-08,
            0,
            0,
            0,
            0,
            0,
            -1.9527285094316022e-08,
            0,
            4.7073401901228907e-10
          ],
        "leaf_weights":
          [
            0,
            0,
            0,
            0,
            41,
            6662,
            0,
            0,
            0,
            0,
            0,
            0,
            0,
            13714,
            0,
            0,
            0,
            0,
            0,
            0,
            32,
            6366,
            0,
            0,
            0,
            0,
            0,
            0,
            0,
            8471,
            0,
            0,
            0,
            0,
            2952,
            0,
            2648,
            19096,
            6837,
            6878,
            0,
            0,
            0,
            0,
            0,
            10128,
            0,
            219,
            153,
            0,
            36273,
            0,
            63075,
            148649,
            62073,
            25049,
            0,
            0,
            0,
            0,
            0,
            20085,
            0,
            307
          ],
        "splits":
          [
            {
              "border":0.76365101337432861,
              "float_feature_index":0,
              "split_index":66,
              "split_type":"FloatFeature"
            },
            {
              "border":0.20454499125480652,
              "float_feature_index":1,
              "split_index":186,
              "split_type":"FloatFeature"
            },
            {
              "border":0.64962548017501831,
              "float_feature_index":0,
              "split_index":13,
              "split_type":"FloatFeature"
            },
            {
              "border":0.88088852167129517,
              "float_feature_index":0,
              "split_index":164,
              "split_type":"FloatFeature"
            },
            {
              "border":0.52492153644561768,
              "float_feature_index":4,
              "split_index":438,
              "split_type":"FloatFeature"
            },
            {
              "border":0.083333499729633331,
              "float_feature_index":1,
              "split_index":182,
              "split_type":"FloatFeature"
            }
          ]
      },
      {
        "leaf_values":
          [
            0,
            0,
            0,
            0,
            0,
            0,
            0,
            0,
            0.018085777355303367,
            0.018823722180193903,
            0,
            -1.2009306169758734e-10,
            0,
            0,
            0,
            0,
            0,
            0,
            0,
            0,
            0.018087641788550268,
            0,
            0,
            0,
            0.018087641788550268,
            -1.2009306169758734e-10,
            0,
            -1.2009306169758734e-10,
            -1.2009306169758734e-10,
            -1.9531934885874905e-08,
            0,
            7.9907092488682111e-11,
            0,
            0,
            0,
            0,
            0,
            0,
            0,
            0,
            0.018087623907157235,
            0.018819782313262312,
            0,
            -1.2009306169758734e-10,
            0,
            0,
            0,
            0,
            0.018087623907157235,
            0,
            0,
            0,
            0.018087623907157235,
            0,
            0,
            0,
            0.018087623907157235,
            -1.9332012038736558e-08,
            0,
            4.6798734507432778e-10,
            -1.2009306169758734e-10,
            -1.9333953809881441e-08,
            0,
            4.6602681560163976e-10
          ],
        "leaf_weights":
          [
            0,
            0,
            0,
            0,
            0,
            0,
            0,
            0,
            50,
            7829,
            0,
            12365,
            0,
            0,
            0,
            0,
            0,
            0,
            0,
            0,
            2498,
            0,
            0,
            0,
            3120,
            22407,
            0,
            7962,
            6441,
            5471,
            0,
            14,
            0,
            0,
            0,
            0,
            0,
            0,
            0,
            0,
            353,
            8149,
            0,
            7749,
            0,
            0,
            0,
            0,
            253,
            0,
            0,
            0,
            35037,
            0,
            0,
            0,
            68171,
            159186,
            0,
            12850,
            61024,
            18753,
            0,
            26
          ],
        "splits":
          [
            {
              "border":0.76525700092315674,
              "float_feature_index":0,
              "split_index":68,
              "split_type":"FloatFeature"
            },
            {
              "border":0.89213049411773682,
              "float_feature_index":0,
              "split_index":171,
              "split_type":"FloatFeature"
            },
            {
              "border":0.36363649368286133,
              "float_feature_index":1,
              "split_index":194,
              "split_type":"FloatFeature"
            },
            {
              "border":0.64480751752853394,
              "float_feature_index":0,
              "split_index":12,
              "split_type":"FloatFeature"
            },
            {
              "border":0.098484992980957031,
              "float_feature_index":1,
              "split_index":183,
              "split_type":"FloatFeature"
            },
            {
              "border":0.52038347721099854,
              "float_feature_index":4,
              "split_index":436,
              "split_type":"FloatFeature"
            }
          ]
      },
      {
        "leaf_values":
          [
            0,
            0,
            0,
            0,
            0,
            0,
            0,
            0,
            0.017904920177796768,
            0.018635484755736176,
            0,
            -1.1889139184972927e-10,
            0,
            0,
            0,
            0,
            0,
            0,
            0,
            0,
            0.017906765537557767,
            0,
            0,
            0,
            0.017906765537557767,
            -1.1889139184972927e-10,
            0,
            -1.1889139184972927e-10,
            -1.1889139184972927e-10,
            -1.9336614081824666e-08,
            0,
            7.9107874037363076e-11,
            0,
            0,
            0,
            0,
            0,
            0,
            0,
            0,
            0.017906746464071865,
            0.01883158403266405,
            0,
            -1.1889139184972927e-10,
            0,
            0,
            0,
            0,
            0.017906747656164734,
            0,
            0,
            0,
            0.017906747656164734,
            0,
            0,
            0,
            0.017906747656164734,
            -1.9138692122985496e-08,
            0,
            4.6330742650412179e-10,
            -1.1889139184972927e-10,
            -1.9140613430500047e-08,
            0,
            4.6136622379341446e-10
          ],
        "leaf_weights":
          [
            0,
            0,
            0,
            0,
            0,
            0,
            0,
            0,
            49,
            7824,
            0,
            12359,
            0,
            0,
            0,
            0,
            0,
            0,
            0,
            0,
            2498,
            0,
            0,
            0,
            3120,
            22397,
            0,
            7966,
            6442,
            5486,
            0,
            16,
            0,
            0,
            0,
            0,
            0,
            0,
            0,
            0,
            41,
            7325,
            0,
            7688,
            0,
            0,
            0,
            0,
            246,
            0,
            0,
            0,
            35044,
            0,
            0,
            0,
            68424,
            159927,
            0,
            12907,
            61083,
            18836,
            0,
            30
          ],
        "splits":
          [
            {
              "border":0.76525700092315674,
              "float_feature_index":0,
              "split_index":68,
              "split_type":"FloatFeature"
            },
            {
              "border":0.89213049411773682,
              "float_feature_index":0,
              "split_index":171,
              "split_type":"FloatFeature"
            },
            {
              "border":0.32575750350952148,
              "float_feature_index":1,
              "split_index":192,
              "split_type":"FloatFeature"
            },
            {
              "border":0.64480751752853394,
              "float_feature_index":0,
              "split_index":12,
              "split_type":"FloatFeature"
            },
            {
              "border":0.083333499729633331,
              "float_feature_index":1,
              "split_index":182,
              "split_type":"FloatFeature"
            },
            {
              "border":0.52038347721099854,
              "float_feature_index":4,
              "split_index":436,
              "split_type":"FloatFeature"
            }
          ]
      },
      {
        "leaf_values":
          [
            0,
            0,
            0,
            0,
            0,
            0,
            0,
            0,
            0.017725870213079364,
            0.018645150244716913,
            0,
            -1.1770222755374106e-10,
            0,
            0,
            0,
            0,
            0,
            0,
            0,
            0,
            0.017727697691447331,
            0,
            0,
            0,
            0.017727678617961429,
            -1.1770222755374106e-10,
            0,
            -1.1770222755374106e-10,
            -1.1770222755374106e-10,
            8.5673148436850767e-10,
            0,
            -1.1770222755374106e-10,
            0,
            0,
            0,
            0,
            0,
            0,
            0,
            0,
            0.017727678617961429,
            0.018643267930076979,
            0,
            -2.0117701756669113e-08,
            0,
            0,
            0,
            0,
            0.017727679810054298,
            0,
            0,
            0,
            0.017727679810054298,
            0,
            0,
            0,
            0.017727679810054298,
            -1.8947306020300854e-08,
            0,
            -1.9341325264274546e-08,
            -1.1770222755374106e-10,
            -1.8949208001053424e-08,
            0,
            -1.9541304954830483e-08
          ],
        "leaf_weights":
          [
            0,
            0,
            0,
            0,
            0,
            0,
            0,
            0,
            41,
            7232,
            0,
            12959,
            0,
            0,
            0,
            0,
            0,
            0,
            0,
            0,
            2498,
            0,
            0,
            0,
            2674,
            20489,
            0,
            8874,
            6562,
            6666,
            0,
            162,
            0,
            0,
            0,
            0,
            0,
            0,
            0,
            0,
            32,
            6858,
            0,
            8164,
            0,
            0,
            0,
            0,
            122,
            0,
            0,
            0,
            35168,
            0,
            0,
            0,
            63939,
            154152,
            0,
            15932,
            63048,
            23946,
            0,
            190
          ],
        "splits":
          [
            {
              "border":0.76365101337432861,
              "float_feature_index":0,
              "split_index":66,
              "split_type":"FloatFeature"
            },
            {
              "border":0.88677752017974854,
              "float_feature_index":0,
              "split_index":168,
              "split_type":"FloatFeature"
            },
            {
              "border":0.2651515007019043,
              "float_feature_index":1,
              "split_index":188,
              "split_type":"FloatFeature"
            },
            {
              "border":0.64480751752853394,
              "float_feature_index":0,
              "split_index":12,
              "split_type":"FloatFeature"
            },
            {
              "border":0.083333499729633331,
              "float_feature_index":1,
              "split_index":182,
              "split_type":"FloatFeature"
            },
            {
              "border":0.52038347721099854,
              "float_feature_index":4,
              "split_index":436,
              "split_type":"FloatFeature"
            }
          ]
      },
      {
        "leaf_values":
          [
            0,
            0,
            0,
            0,
            0,
            0,
            0,
            0,
            0.017505634631835632,
            0.018262677976578212,
            0,
            -1.1652556880962271e-10,
            0,
            0,
            0,
            0,
            0,
            0,
            0,
            0,
            0.017550420368825925,
            0,
            0,
            0,
            0.017550421560918794,
            -1.1652556880962271e-10,
            0,
            -1.1652556880962271e-10,
            -1.1652556880962271e-10,
            8.4818393966546049e-10,
            0,
            -1.1652556880962271e-10,
            0,
            0,
            0,
            0,
            0,
            0,
            0,
            0,
            0.017522223796198722,
            0.01845683533422271,
            0,
            8.3474585376646741e-11,
            0,
            0,
            0,
            0,
            0.017550402487432892,
            0,
            0,
            0,
            0.017550402487432892,
            0,
            0,
            0,
            0.017550402487432892,
            -1.8757832130183949e-08,
            0,
            6.5208779139929e-10,
            -1.1652556880962271e-10,
            1.2402841498613052e-09,
            0,
            6.5210711816127069e-10
          ],
        "leaf_weights":
          [
            0,
            0,
            0,
            0,
            0,
            0,
            0,
            0,
            102,
            7771,
            0,
            12359,
            0,
            0,
            0,
            0,
            0,
            0,
            0,
            0,
            2299,
            0,
            0,
            0,
            3681,
            20361,
            0,
            7830,
            7260,
            5586,
            0,
            152,
            0,
            0,
            0,
            0,
            0,
            0,
            0,
            0,
            91,
            7275,
            0,
            7688,
            0,
            0,
            0,
            0,
            117,
            0,
            0,
            0,
            35372,
            0,
            0,
            0,
            72002,
            147070,
            0,
            12773,
            69798,
            19957,
            0,
            164
          ],
        "splits":
          [
            {
              "border":0.77275151014328003,
              "float_feature_index":0,
              "split_index":76,
              "split_type":"FloatFeature"
            },
            {
              "border":0.89213049411773682,
              "float_feature_index":0,
              "split_index":171,
              "split_type":"FloatFeature"
            },
            {
              "border":0.20454499125480652,
              "float_feature_index":1,
              "split_index":186,
              "split_type":"FloatFeature"
            },
            {
              "border":0.64480751752853394,
              "float_feature_index":0,
              "split_index":12,
              "split_type":"FloatFeature"
            },
            {
              "border":0.083333499729633331,
              "float_feature_index":1,
              "split_index":182,
              "split_type":"FloatFeature"
            },
            {
              "border":0.517364501953125,
              "float_feature_index":4,
              "split_index":435,
              "split_type":"FloatFeature"
            }
          ]
      },
      {
        "leaf_values":
          [
            0,
            0,
            0,
            0,
            0,
            0,
            0,
            0,
            0.017373555510337146,
            0.018278032132729161,
            0,
            -1.1536027874902241e-10,
            0,
            0,
            0,
            0,
            0,
            0,
            0,
            0,
            0.017374915688300518,
            0,
            0,
            0,
            0.017374897806907486,
            -1.1536027874902241e-10,
            0,
            -1.1536027874902241e-10,
            -1.1536027874902241e-10,
            -1.9162238940288085e-08,
            0,
            -2.0115359807864394e-08,
            0,
            0,
            0,
            0,
            0,
            0,
            0,
            0,
            0.017375180332917406,
            0.018272267171615342,
            0,
            -1.9917360541977302e-08,
            0,
            0,
            0,
            0,
            0.017374898999000354,
            0,
            0,
            0,
            0.017374898999000354,
            0,
            0,
            0,
            0.017374898999000354,
            -1.8570254536477855e-08,
            0,
            8.4556686871960498e-10,
            -1.1536027874902241e-10,
            1.2278615893811301e-09,
            0,
            6.4758579272614152e-10
          ],
        "leaf_weights":
          [
            0,
            0,
            0,
            0,
            0,
            0,
            0,
            0,
            35,
            6790,
            0,
            13688,
            0,
            0,
            0,
            0,
            0,
            0,
            0,
            0,
            2297,
            0,
            0,
            0,
            2631,
            20488,
            0,
            10456,
            7430,
            7009,
            0,
            205,
            0,
            0,
            0,
            0,
            0,
            0,
            0,
            0,
            29,
            6422,
            0,
            8322,
            0,
            0,
            0,
            0,
            53,
            0,
            0,
            0,
            31991,
            0,
            0,
            0,
            62921,
            150895,
            0,
            18738,
            64792,
            24295,
            0,
            221
          ],
        "splits":
          [
            {
              "border":0.7625805139541626,
              "float_feature_index":0,
              "split_index":65,
              "split_type":"FloatFeature"
            },
            {
              "border":0.88195949792861938,
              "float_feature_index":0,
              "split_index":165,
              "split_type":"FloatFeature"
            },
            {
              "border":0.2651515007019043,
              "float_feature_index":1,
              "split_index":188,
              "split_type":"FloatFeature"
            },
            {
              "border":0.63356548547744751,
              "float_feature_index":0,
              "split_index":10,
              "split_type":"FloatFeature"
            },
            {
              "border":0.083333499729633331,
              "float_feature_index":1,
              "split_index":182,
              "split_type":"FloatFeature"
            },
            {
              "border":0.52836501598358154,
              "float_feature_index":4,
              "split_index":440,
              "split_type":"FloatFeature"
            }
          ]
      },
      {
        "leaf_values":
          [
            0,
            0,
            0.017201147887085044,
            0,
            0.017201168152663815,
            0.017501232232870922,
            -1.1420635737194016e-10,
            -1.8968695061471717e-08,
            0,
            0,
            0,
            0,
            0,
            -2.0114207023355663e-08,
            0,
            -1.8966714636802872e-08,
            0.017201150271270782,
            0,
            0.017201150271270782,
            0,
            0.017201150271270782,
            -1.8384551638683887e-08,
            -1.1420635737194016e-10,
            -1.878439733296058e-08,
            0,
            0,
            0,
            0,
            0,
            1.4212900760597898e-09,
            0,
            1.0273066434391798e-09,
            0,
            0,
            0.017201147887085044,
            0,
            0.017201149079177913,
            0.018831485088955935,
            0.019209900665061896,
            -1.8966695310040892e-08,
            0,
            0,
            0,
            0,
            0,
            -1.1420635737194016e-10,
            0,
            -1.8966714636802872e-08,
